Returns
-0.0017118207613553795
0.0044968052922133486
-0.001791533756771138
0.0005931987992600168
0.002841245972416324
-0.0030013002585270072
0.007844604290335839
-0.00017282259812457235
-0.0015045528536723972
0.004976605869186441
0.0012987558707133102
-0.0016127695804650168
-0.001144739821585744
0.0012436465028870002
-0.007630365338988239
-0.013788120312207358
0.007701637766375562
0.005085275876419232
0.007087907419435769
-0.012343077452794796
0.006704494896709958
0.012664734562795973
0.005206457039837663
0.0036351265874233897
-0.0035976930505268964
0.006276247545897055
0.001404979244503938
0.006313703842300376
0.0003387628626303101
0.0005286105752520657
0.001657601701358736
0.00785796060578334
-0.0033064163460465655
-0.009359081020930832
-0.030159526806025086
-0.029239345724578317
-0.006960701725116859
-0.04239830772321457
-0.007149523882739719
0.03852126176971276
-0.019651898144936474
0.025537964803082444
-0.027366653798642657
-0.021799833521147317
-0.09107447748924508
0.040058444307603594
-0.04135232538590578
-0.08749404327240103
0.0645250820819717
-0.11351242552691379
0.03188948291596943
-0.07111328800717288
0.019059866821009346
-0.0234520033593585
-0.01718734249169299
0.08621947248115411
0.018118930932715077
0.04192181070474867
-0.03466664615048434
0.018858039513111286
-0.00884321606125929
-0.04000621188429427
0.02672822122778125
-0.005845198210086708
0.05137186475966403
0.0004700210394076071
0.029053131380928868
0.013399685453911986
-0.0014994654278106378
0.016611491221830303
-0.020992142481172572
-0.003178243438209487
0.02751102779720737
-0.02137126292148409
-0.035437224813614776
0.01483243312273327
0.005189793512466814
0.006627322433410517
0.008338978094742436
-0.0013041408714210352
0.027261606618892528
-0.006149697693954452
-0.029870222497557566
0.008254557410134613
0.009255415519198276
-0.009841387016708267
0.011462525561797443
0.019084141260411157
-0.005645593450587037
-0.016092546253541867
-0.01799436637198875
0.013209253602335335
0.002622262026005117
0.035313369874595366
-0.008970788694287288
0.019022801842384092
-0.004223924619006797
-0.002228006024820079
0.014927625373841482
0.014045611019158265
-0.009279673343955092
0.0047160171943238
0.010274001442574003
0.00821019930322447
0.012965165691818072
0.0007577105902359695
0.024773123242386764
0.016877235809515008
-0.007196596203649623
-0.004966710540420756
-0.055976222346220156
0.010559249764748008
0.00900673724664356
0.015191078071712348
-0.007802003088501706
0.002339785345292162
-0.003825673609987228
0.005746651694839193
0.004219479942091586
-0.02725445692830104
0.012898418281882273
-0.023353030967866888
0.015808909516850895
0.013225473826537373
0.001245916107137345
0.007713669019650021
0.017931827972167497
-0.011204075221619503
0.007983061732318057
-0.009029794468930827
0.01676937892742683
-0.006044901650500355
0.012295356442568708
0.009827152173621538
-0.006460680379374869
-0.0015705585698701583
0.009133881872896698
0.01076333198073338
0.005579872449439597
-0.011031393502181592
-0.006984822539361278
0.010147868247278216
-0.0061592778106467246
0.009695081921412538
-0.011165496774877551
0.004029715370477814
0.007679539490845556
0.007911194416369918
0.009210806566419972
0.007376000563021293
-0.002279398854126824
0.007543012121218066
-0.013290318530104199
0.013315796286831817
0.001238669138655152
-0.00047187448050063294
0.0055416416389106994
0.0019821990450669966
-0.0066558568094110225
0.0029790466326004173
0.001363632388643579
0.010486131645295837
0.0009105485806164483
0.004641810267000193
0.0015608062188322658
0.006943984536968228
-0.00023624277546477226
0.002451384809271824
0.005027038147287928
-0.02757308522657204
-0.003935336016566341
-0.03550315950595199
0.01823206082173603
-0.015496485160554394
0.00012730482553636817
0.013483486552787971
0.003204679677629935
0.005742239234461884
-0.004906817558885599
-0.008212702570232879
-0.016797462827654715
0.0011147231376958792
-0.028249070419987532
0.004130111977355027
0.011601439024571506
0.0171027248171403
-0.0076992597881167454
0.005446790496745363
0.003167695810498162
-0.008687219672837252
0.01770757029504607
-0.012726460974715529
0.013877737103270608
0.012544737981878475
0.007994811566924886
0.011557172356407772
-0.0074838894155811134
-0.002829727324339776
0.0011015350680323136
-0.001659312462424341
-0.013004968757701713
0.005220845413559152
-0.004520285626318303
0.0111169596721657
-0.00042666442796976184
-0.015731403515100117
-0.0025799228399038137
-0.02999761162121584
0.0081508631606495
-0.008621430016542031
0.015129413329835254
0.014974120292971883
0.01257133108017277
0.01870743448201133
-0.004872115304211475
0.024596780618099282
0.002453323426705352
0.003948110468954347
-0.009681146848251138
0.011541377498832394
0.01626902620542693
0.000648887685892059
-0.006982948030714904
0.004387688460888724
-0.003924883530692558
0.011981196376707994
0.021191234233923696
-0.0005633544160117607
-0.0005253275784237793
-0.012915643699882217
0.01028680153937911
0.0060509326683969005
0.003394400760071238
0.008684397258363683
0.0006091351401771277
0.004681475501331627
-0.008904463365000396
0.006227965328080779
-0.0036459334364161104
-0.0052677697301271205
0.012588969480817358
0.0022669803946785932
0.005470056661788682
-0.0030693664153445934
-0.0021874048020842965
-0.005761494582595169
0.006462859960317082
0.0019967546186893514
0.00594230667555205
-0.002520004918295662
0.004203279053720028
